digraph Tree {
node [shape=box, style="filled", color="black"] ;
0 [label="X[9] <= 45.483\ngini = 0.161\nsamples = 1816\nvalue = [1656, 160]", fillcolor="#e88d4c"] ;
1 [label="X[5] <= 3.5\ngini = 0.129\nsamples = 1779\nvalue = [1656, 123]", fillcolor="#e78a48"] ;
0 -> 1 [labeldistance=2.5, labelangle=45, headlabel="True"] ;
2 [label="X[2] <= 48600.0\ngini = 0.117\nsamples = 1761\nvalue = [1651, 110]", fillcolor="#e78946"] ;
1 -> 2 ;
3 [label="X[0] <= 9050.0\ngini = 0.377\nsamples = 103\nvalue = [77, 26]", fillcolor="#eeac7c"] ;
2 -> 3 ;
4 [label="X[7] <= 6.0\ngini = 0.485\nsamples = 29\nvalue = [12, 17]", fillcolor="#c5e2f7"] ;
3 -> 4 ;
5 [label="X[13] <= 0.5\ngini = 0.386\nsamples = 23\nvalue = [6, 17]", fillcolor="#7fc0ee"] ;
4 -> 5 ;
6 [label="X[12] <= 0.5\ngini = 0.255\nsamples = 20\nvalue = [3, 17]", fillcolor="#5caeea"] ;
5 -> 6 ;
7 [label="gini = 0.0\nsamples = 16\nvalue = [0, 16]", fillcolor="#399de5"] ;
6 -> 7 ;
8 [label="gini = 0.375\nsamples = 4\nvalue = [3, 1]", fillcolor="#eeab7b"] ;
6 -> 8 ;
9 [label="gini = 0.0\nsamples = 3\nvalue = [3, 0]", fillcolor="#e58139"] ;
5 -> 9 ;
10 [label="gini = 0.0\nsamples = 6\nvalue = [6, 0]", fillcolor="#e58139"] ;
4 -> 10 ;
11 [label="X[4] <= 3.5\ngini = 0.214\nsamples = 74\nvalue = [65, 9]", fillcolor="#e99254"] ;
3 -> 11 ;
12 [label="X[6] <= 324.545\ngini = 0.155\nsamples = 71\nvalue = [65, 6]", fillcolor="#e78d4b"] ;
11 -> 12 ;
13 [label="X[2] <= 48468.0\ngini = 0.133\nsamples = 70\nvalue = [65, 5]", fillcolor="#e78b48"] ;
12 -> 13 ;
14 [label="X[0] <= 12750.0\ngini = 0.109\nsamples = 69\nvalue = [65, 4]", fillcolor="#e78945"] ;
13 -> 14 ;
15 [label="gini = 0.32\nsamples = 20\nvalue = [16, 4]", fillcolor="#eca06a"] ;
14 -> 15 ;
16 [label="gini = 0.0\nsamples = 49\nvalue = [49, 0]", fillcolor="#e58139"] ;
14 -> 16 ;
17 [label="gini = 0.0\nsamples = 1\nvalue = [0, 1]", fillcolor="#399de5"] ;
13 -> 17 ;
18 [label="gini = 0.0\nsamples = 1\nvalue = [0, 1]", fillcolor="#399de5"] ;
12 -> 18 ;
19 [label="gini = 0.0\nsamples = 3\nvalue = [0, 3]", fillcolor="#399de5"] ;
11 -> 19 ;
20 [label="X[6] <= 43.65\ngini = 0.096\nsamples = 1658\nvalue = [1574, 84]", fillcolor="#e68844"] ;
2 -> 20 ;
21 [label="X[9] <= 37.446\ngini = 0.408\nsamples = 7\nvalue = [2, 5]", fillcolor="#88c4ef"] ;
20 -> 21 ;
22 [label="gini = 0.0\nsamples = 5\nvalue = [0, 5]", fillcolor="#399de5"] ;
21 -> 22 ;
23 [label="gini = 0.0\nsamples = 2\nvalue = [2, 0]", fillcolor="#e58139"] ;
21 -> 23 ;
24 [label="X[1] <= 383586.5\ngini = 0.091\nsamples = 1651\nvalue = [1572, 79]", fillcolor="#e68743"] ;
20 -> 24 ;
25 [label="X[4] <= 2.5\ngini = 0.089\nsamples = 1649\nvalue = [1572, 77]", fillcolor="#e68743"] ;
24 -> 25 ;
26 [label="X[7] <= 3.5\ngini = 0.085\nsamples = 1641\nvalue = [1568, 73]", fillcolor="#e68742"] ;
25 -> 26 ;
27 [label="X[8] <= 1.5\ngini = 0.073\nsamples = 1561\nvalue = [1502, 59]", fillcolor="#e68641"] ;
26 -> 27 ;
28 [label="gini = 0.0\nsamples = 1\nvalue = [0, 1]", fillcolor="#399de5"] ;
27 -> 28 ;
29 [label="gini = 0.072\nsamples = 1560\nvalue = [1502, 58]", fillcolor="#e68641"] ;
27 -> 29 ;
30 [label="X[5] <= 0.5\ngini = 0.289\nsamples = 80\nvalue = [66, 14]", fillcolor="#eb9c63"] ;
26 -> 30 ;
31 [label="gini = 0.195\nsamples = 73\nvalue = [65, 8]", fillcolor="#e89151"] ;
30 -> 31 ;
32 [label="gini = 0.245\nsamples = 7\nvalue = [1, 6]", fillcolor="#5aade9"] ;
30 -> 32 ;
33 [label="X[7] <= 1.5\ngini = 0.5\nsamples = 8\nvalue = [4, 4]", fillcolor="#ffffff"] ;
25 -> 33 ;
34 [label="gini = 0.0\nsamples = 4\nvalue = [4, 0]", fillcolor="#e58139"] ;
33 -> 34 ;
35 [label="gini = 0.0\nsamples = 4\nvalue = [0, 4]", fillcolor="#399de5"] ;
33 -> 35 ;
36 [label="gini = 0.0\nsamples = 2\nvalue = [0, 2]", fillcolor="#399de5"] ;
24 -> 36 ;
37 [label="X[8] <= 30.5\ngini = 0.401\nsamples = 18\nvalue = [5, 13]", fillcolor="#85c3ef"] ;
1 -> 37 ;
38 [label="gini = 0.0\nsamples = 12\nvalue = [0, 12]", fillcolor="#399de5"] ;
37 -> 38 ;
39 [label="X[10] <= 0.5\ngini = 0.278\nsamples = 6\nvalue = [5, 1]", fillcolor="#ea9a61"] ;
37 -> 39 ;
40 [label="gini = 0.0\nsamples = 1\nvalue = [0, 1]", fillcolor="#399de5"] ;
39 -> 40 ;
41 [label="gini = 0.0\nsamples = 5\nvalue = [5, 0]", fillcolor="#e58139"] ;
39 -> 41 ;
42 [label="gini = 0.0\nsamples = 37\nvalue = [0, 37]", fillcolor="#399de5"] ;
0 -> 42 [labeldistance=2.5, labelangle=-45, headlabel="False"] ;
}